{"config": {"state_size": 10, "action_size": 3, "hidden_dim": 32, "learning_rate": 0.01, "gamma": 0.99, "epsilon": 0.9511101304657719, "epsilon_min": 0.01, "epsilon_decay": 0.995}, "layers": [{"weights": [[0.0012051929909817263, 0.6583588521724942, 0.00893173104125059, 0.5492026050270065, 0.6618953739862097, 0.5288981942766918, 0.6158033681677549, 0.5642123386779033, 0.47229132979021243, -0.005668865759552371, 0.007399291399337544, -0.0010314609911973509, -0.006292500873237028, 0.677370248528888, -0.002535023290162744, 0.5751038401416806, 0.5781165930044777, -0.020990235589197177, 0.6713402964574086, 0.49056190224963325, 0.0010533534337341778, 0.5311808174448799, -0.003827012464976966, 0.5724965796612873, 0.009549938760590146, 0.005522143890298205, 0.5961965939866137, -0.022861739381119933, -0.003975410812838175, 0.47834708497133116, 0.013430401250491907, 0.0066542817128303145], [-0.01856038986411548, 0.9940426540769217, -0.006907812854603062, 0.8524639582684774, 1.0579816967435924, 0.7940314763523214, 0.9496735415256031, 0.9264045146929681, 0.7190578820610857, -0.007310408599623736, -0.0045563494966075506, -0.0015889773552163488, -0.0001593785315049925, 1.0657473235191195, -0.02506793821585773, 0.9260172788144367, 0.9026347664409382, 0.000803438092966272, 1.1042040627412772, 0.7270557525590611, -0.022833815518162843, 0.8034634870647017, -0.009787290945345558, 0.8623718708646344, -0.009362915523211411, -0.011440415136582309, 0.9359031204267518, -0.008277807516626004, -0.0069606481280910714, 0.7368324120031091, -0.0027220237987685323, -0.002576027637554116], [0.010699745954867272, 0.001185546882679111, -0.00767119548165384, 0.007555662347032216, -0.001888160244638688, -0.012353626300667248, 0.0021659015863145894, -0.014055769181919336, -0.003859258914477446, 0.014795926334844962, 0.011323059478026165, 0.000983996491608562, -0.0069609427040026005, -0.004593341323107103, 0.0048723400953032975, 0.01835680774094823, -0.006366106809636882, -0.008214571635153267, 0.02143041296726042, -0.006060827375300274, 0.01087139621990564, 0.009744951802446469, 0.0017742209515171359, 0.007953420606108763, 0.015609282515130898, -0.003094647594335206, 0.00637788510235225, -0.009885084976901508, 0.010373902398609585, 0.007743539034719109, -0.009908127453130798, -0.004094876017237503], [0.01195086065613417, -0.003228498538739115, 0.011738936464862322, -0.003739942342537781, -0.0018521353683122366, -0.0033330393048151665, -0.002722564093447793, -0.013283654842092055, -0.013964895659791332, -0.011394955807808447, 0.0029861860896022324, -0.0016187319618356493, -0.004406479222227955, 0.006240162764411032, 0.013916687907578088, -0.014186973283531832, -0.009160574548820107, 0.013630267628027319, 0.005387445963853127, -0.004960940666547009, -0.017690008298428487, 0.0005993771880563104, -0.012805216001403427, -0.004500036673564522, 0.01129873353927509, -0.02030701813209887, -0.00500461297117253, -0.0011524266940839366, 0.009590607954395649, -0.0058615978460824425, -0.004792416603558372, -0.0006538248072173692], [0.0008012670390143787, 0.012208206887742741, -0.01103701495947575, 0.014506393836083832, -0.0018554599513458745, -0.005304767383395009, 0.01403702547234179, -0.013521711885810625, -0.00305559684907893, -0.001566932350130018, -0.008261502714637088, -0.003839284075173952, 0.013364607528037949, -0.007887305239439956, 0.0018248207606638986, 0.020495806505359912, 0.0011771952245366523, 0.00021111226826655755, 0.025633793077581294, -0.009351353441577528, -0.014299360872064187, -0.004389390890554188, 0.0024027143654440147, 0.004797887158967202, -0.02475962984913192, -0.0007602142685544011, -0.010367277981779091, -0.009653928562355609, -0.010821604617114131, -0.00012451294433059643, -0.0011699230395298475, -0.000675757626938394], [0.00923320616755649, -0.014482591136024956, 0.010051052635049629, -0.00223647401220467, -0.0002781154031333123, 0.0018510739226805454, -0.0015112812016055254, -0.0010743262450064615, -0.000612696344140886, -0.013329755125591322, -0.008233916263897996, 0.017165690622693304, 0.004358218431874389, -0.007232186057541577, 0.030271851892291163, -0.005780535826591108, -0.0023555393278285415, 0.003520842363387326, 0.0075875696843698635, -0.012079735280556527, 0.0019236321078592228, 0.0021239042992164097, -0.00645189365737719, -0.01608495952941208, -0.01644160009009361, -0.002234866189466156, 0.008822641968981117, 0.003772932388507728, 0.0088403331626525, 0.0007078451406610265, 0.0043004680439048485, -0.0020769717060808044], [0.010306453838906098, -0.0037127755976525284, -0.004517916760709463, 0.014644077775657436, -0.0022075781645020456, -0.012416844606535221, -0.009572836389691163, 0.0026499742898866015, -0.00534681225127421, -0.01994106969172088, -0.0006610927483440713, -0.014962940973388914, 0.004728073386371884, -0.0028230743296804093, 0.009585782995451472, -0.009592999978271122, 0.00041359863918566094, -0.011011921141512835, 0.008845323471522169, 0.005135368101379901, -0.014475376397638387, 0.004362243934701848, 0.000996857326080431, 0.0011595241280416369, 0.02530530073846547, -0.015940906049396984, -0.0019557610534247376, 0.0008382869660376981, -0.0005326574172477204, -0.000753534106256368, -0.0033857365442689046, -0.0053201534098382165], [0.005112169741021736, 0.011072304289796425, 0.0011972079971294834, 0.014802838685613301, -0.007578309972113116, 0.0062110902356499334, 0.00796402936815042, 0.00904510011665469, -0.007388109268354128, 0.004975427551588274, 0.016970948757879533, -0.00924101932629097, -0.012326285311615557, 0.005665313565911034, 0.002744399288397984, -0.0033122017480420054, -0.0049988636488014085, -0.0018264650356371879, -0.016835794955498033, -0.02775766564810402, -0.004691819816787926, 0.03201018004876893, 0.0006178143081249592, 0.00817793132928857, 0.0008495107013384093, 0.016819544936215947, -0.010136625066882793, 0.0055147045210057885, -0.0032142602505458324, -0.007609790228348984, -9.640660259451709e-05, 0.009489292655869605], [0.003267949212739846, -0.014790483153080798, -0.00663496369760697, 0.012932033029045147, -0.001609974701856875, 0.023373005243561795, -0.014091499837413073, 0.0107453389695588, -0.0161223625211003, -0.007906201264231081, -0.01168911189258906, -0.015537072993878267, 0.010860456374103107, 0.00583168714455217, -0.0074102524428410425, 0.011861551014849715, -0.004883558753670777, -0.021477561764632256, 0.001985765118851723, -0.0010192631712216639, -0.010245724413819568, 0.008253938849757385, -0.00852496312123992, -0.023351622058242, -0.011558672468799562, -0.007003246832275856, 0.014724267023396605, -0.0010652624194569518, -0.01148287965048838, 0.010642360727600067, -0.00982253293911839, 0.0007909720277544631], [-0.010992171859004158, -0.0029736704906995525, -0.02001321078923133, 0.0018974533309186858, -0.005705377424884887, -0.0040643941571026744, 0.010577541482602875, -0.003963621022242754, -0.010298644338264695, -0.00011656532040488739, -0.010305589706816424, -0.009997050512890274, 0.0014649144738927062, -0.005881074415591374, 0.017046081912134275, -0.009468161640227285, 5.754207384823522e-05, 0.0034817358650610355, 1.0581546558336764e-05, 0.020337152432526415, -0.006252045527831905, 0.0017600477330472247, -0.005835123035843668, -0.004828884937223329, 0.005101337472403057, 0.000826606538413606, 0.004050673210001411, 0.017758884782702263, 0.020943006731701103, 0.013821199314097277, 0.004405809503366063, 0.005250699189415515]], "biases": [[-2.295102164179657e-05, 0.732070789693403, 0.00037468491403935193, 0.644447876056851, 0.7630032690566346, 0.6071061158609043, 0.7065918458766672, 0.6903111161947871, 0.5505792146854501, 0.0, -0.0029182858853953495, 0.0, 0.0, 0.7668772886386007, 0.0, 0.6909315429842747, 0.6770778871464925, 0.0, 0.7848173889077936, 0.5567164194673665, 0.0003322430489346286, 0.6119865677274433, 0.0, 0.6520537239158448, 0.00033181643287587617, -0.00041275378267511664, 0.6977922381000307, 0.0, 0.0, 0.5628256745379776, -0.0014792357807146468, -0.0027749943497773974]]}, {"weights": [[0.008022115606951433, 0.00600801043665989, 0.0012011704172357352, -0.018964199116482, 0.011738616013675304, 0.0018454416838392595, 0.012814196642557545, -0.002523202821602397, 0.00911650375122136, 0.007683106369914566, 0.0021845467912021245, -0.005964656136726473, -0.0004229350240923254, 0.014603603190753161, -0.009973682463095802, -0.005472938682694718, -0.005137762424713747, -0.01409519025924965, 0.011637454719050913, -0.0009257581546649816, -0.003985633476276482, -0.008048702693415464, -0.0076115385196774575, -0.017729414212818487, 0.002481472655544067, 0.007472402979607345, -0.022747979918629854, 0.010264884469314622, 0.004373787878377951, -0.011985924652652967, 0.0033593247294307622, 0.008189134842458793], [-0.0017445967644741098, -0.01550826893534277, -0.0017766137875510587, 0.8561407595182446, 0.8555483890686298, -0.016180151572807458, 0.005834583697515604, 0.8148216220915065, -0.018110483698895802, 0.8447967658445191, 0.0016572989873815086, -0.0004374263193438415, 0.8964148953766494, 0.8094032762472638, -0.016075003612072446, 0.7835966872343404, -0.0034723812836563997, -0.0036789826489909173, 0.7449777559500321, 0.7420682721665596, -0.0036375474089109074, -0.014435609569503951, -0.011371259449221046, 0.5074292356975562, -0.0014808686111425014, 0.0013711964421369474, 0.7878943636391142, 0.75042416798142, 0.002370595214218671, -0.004951758092039689, -0.0024080314205333843, 0.004207308643329352], [0.01661599525081639, 0.006558384447246601, 0.004757427772074707, 0.014181071264269955, -0.01215663208457704, -0.0041076268590808235, -0.0018362106674875917, 0.007128263375769137, 0.008463189148610233, -0.010396846361881575, -0.005713757021371683, 0.011451382304171401, -0.008072055475846968, 0.0009053128607623036, -0.001071748468959131, 0.008402722636784874, 0.011715848264675713, 0.013592053828450686, 0.0035251099127070677, 0.00756084992452611, 0.016329350610706225, 0.001528776690800676, 0.011926844970742851, 0.01781815279564533, 0.001326633359832156, -0.011361374209983607, 0.010779345026640278, -0.011497437240011135, -0.01697809958820064, -0.0005748318214614727, -0.009831449054981086, 0.006425762731244728], [0.003741711774078516, -0.010350677592958825, -0.0012533028718497298, 0.7465395631606115, 0.7493318299544983, -0.001887478212525285, -0.0023221030286012766, 0.6771601288560564, 0.004704715088953114, 0.7318574474572141, -0.019395120628461285, -0.01043310663851161, 0.7586162546166927, 0.6996711707617229, -0.0014015704789393454, 0.6931986949801743, 0.01390708014648607, 0.00027038124381524456, 0.6625246732309141, 0.6666028332130888, 0.001642097454780584, -0.010614784760129772, -0.00408446446689557, 0.4727827741606436, -0.005615910200989754, 0.013595363172260058, 0.7076712740566156, 0.6615684534672365, -0.0065080918413845295, -0.002310474101209409, 0.0020019617141237163, -0.013675988430173184], [-0.0021497180461959417, -0.0032029427951302415, -0.005129475604524239, 0.894399714661744, 0.9079513211726984, 0.012503877629696918, 0.01443253897343705, 0.8409408620284535, -0.0070753587616572125, 0.8931345203282199, -0.011773140296618603, -0.0016123646305326647, 0.9286819901997555, 0.8542755246273291, 0.010479076017621328, 0.8358699610067688, -0.00986842564876107, -0.002468228090865591, 0.7900689543499047, 0.7678057398114867, -0.009367842986128234, 0.01900064586067305, -0.0010118397798909483, 0.5382864662153495, -0.0030451564654055993, -0.003375522864854035, 0.8341561125230552, 0.7836747115291698, 0.0011487100060320497, -0.007116350796832673, -0.018117689933614862, -0.0025117801235313452], [0.0005611001666763887, 0.0001685118382081059, -0.00012608891079131162, 0.6959728902432072, 0.6820693132959997, -0.004873933582402896, -0.007995445113706118, 0.6702713499777416, -0.0005057297980922223, 0.6812844608911843, -0.006988178877125569, -0.006319269615556036, 0.7010675606361554, 0.6474417980651416, -0.015607191705368314, 0.6555076451364082, 0.01002710465624166, 0.007383735099948209, 0.6464358592261183, 0.6288564928029992, -0.0046716413627035805, -0.00678764328188678, -0.0013859041499944876, 0.4575554250141374, 0.004817708096239157, 0.002291647895694863, 0.6479720873218453, 0.6317568587556442, 0.023437195838104063, -0.01644151079182728, 0.009169291511077036, -0.006524791779923517], [0.0017052598651026232, -0.000861866243412564, 0.022113232407435533, 0.8046580436735655, 0.834857287134758, 0.010632196103313686, -0.019030697171597732, 0.7803865153574767, 0.005262736977024888, 0.8093096064690753, -0.00850055695155265, 0.0002990912351746829, 0.852408961989627, 0.7790097339487931, 0.009598793562568077, 0.7551218804853421, -0.0037750405940555846, 0.0162014084496403, 0.7368475004154056, 0.7023221319289917, 0.0023636424228752426, -0.002516982990605156, -0.005438809971007385, 0.4957755799878446, -0.00847722141299791, 0.0071847235793059, 0.7661079774452795, 0.7244628707655173, -0.006573156253469489, -0.01014905193749682, -0.0023743397882018385, 0.0043894682517915855], [-0.010870140175808755, -0.008138324169549785, 0.005837815582773258, 0.7896948577361417, 0.8069363092100499, -0.007599369616303507, 0.007930977054003158, 0.7588749105979005, -0.0007850714024371415, 0.7726728696989156, 0.023854400836665797, 0.0018794190907128463, 0.8315336821133861, 0.7587213174358941, -0.004315244395559021, 0.7460569984093005, -0.004147210436219052, -0.0074712544453147565, 0.72283673231891, 0.7063811089295475, 0.005429569223371031, 0.011117874640941654, -0.016020278314304227, 0.5018903249697217, -0.019314547218789647, 0.0018201933600779355, 0.7338334957982914, 0.7111194412987664, 0.009227327629389869, -0.004982758378818929, -0.0019760669250600384, 0.006988092540766404], [-0.014132517953067351, 0.00952793098090331, 0.005943041554698548, 0.6118421452768026, 0.6280220044910706, -0.014206508889482465, -0.0030314220199688592, 0.5980322353679624, 0.0046231612277757815, 0.5881877700321976, 0.00558309049292741, 0.00497706974308554, 0.6438455517698554, 0.6052275186960194, 0.008339104583100148, 0.5861156187988751, 0.008237229351951446, 0.011054552924574277, 0.5759813797199371, 0.5702761829930434, -0.011509131519973776, -0.00874978818383943, -0.0011258840102492576, 0.45863556815524814, 0.010750860230114161, 0.003271854005248018, 0.5948447534797303, 0.5654838137976733, 0.0008393267849142139, 0.02355704985462546, 0.002698770423231918, -0.014053826428664902], [0.007798730104253021, -0.002928818994674021, 0.018259073070019796, 0.009422131053567871, -0.0005885278676305527, 0.004855112165333761, 0.004836501730499522, 0.003094049984226232, -0.0036089611055097805, 7.968293426600916e-05, 0.007007762192132992, 0.0074439112421802725, 0.003060013679526281, -0.0023151346419938695, -0.014524068923300383, 0.002953445645296858, 0.0037173082055865178, 0.0032047903487951953, 0.013077914597007441, 0.00662321048139796, 0.00724018685255498, -0.006603303645693511, -0.003260170608182521, -0.007053463075865302, -0.008512027082715198, 0.007707496413240633, -0.00886191063510279, 0.007971830940818412, 0.00693323658887813, -0.01304155279141286, -0.003201456456509179, 0.0027475303006476515], [0.004875739508386016, -0.016893138105558345, 0.016263182420673972, -0.009869797552576482, -0.013418806754284687, 0.0015490415361092266, 0.016314815206828225, -0.016312098447743915, 0.0018061618711164688, 0.0019559567854917034, 0.005517078882636375, -0.011381121068550062, -0.003848794020969873, -0.021315555868906065, 0.006930888686915073, -0.0015150119473269022, -0.0040612071951230235, 0.006311643209082985, -0.00044664191204400836, 0.013788465020184795, 0.011205672789871567, -0.007948180392240314, 0.019018894098297903, -0.011383440862343665, 0.0020565627668217928, -0.016115895576770952, -0.01160717489420226, -0.008414001259563368, 0.009571366517531854, -0.001911128805887776, -0.00014463193588303263, -0.021893720314141215], [-0.007429411022783367, 0.0018605336014740504, 0.0006855796472787494, 0.000690978316472758, 0.0046466318265183364, -0.002510836328646007, 0.0018351023259690089, 0.013691624849332258, 0.009803286896293818, -0.006204700161802746, 0.02046063892356523, 0.010028709923799235, -0.001504121195416111, 0.010683842386969098, 0.0013661307799434353, 0.0006572489700124572, -0.012737954845305544, -0.01091151848566287, -0.004921143797149121, -0.005961533420060956, -0.005391740340115469, 0.001920386519551825, -0.00300062453280058, -0.011015491877240617, -0.005839124137248395, -0.008984032695621792, -0.017760603873115344, -0.010988455037490494, -0.014347204134468723, -0.00024640415672746974, 8.887613801349306e-05, 0.004927950546644641], [-0.00851057995808636, -0.000995360490415921, 0.010283763414949887, 0.02208068245586522, -0.009287940617338286, 0.004882563274496925, -0.002079712753149519, 0.0005437528601699017, 0.004460570413313875, -0.01429520755392849, -0.013901928194229283, -0.001548646874290024, 0.016400996653345604, -0.015447330906005769, -0.00458608770876306, 0.000868798291530717, 0.0026318129060703584, -0.004129785217586944, -0.0030580873339332328, -0.005533440942165829, 0.018272681501150245, -0.012032651667231269, -0.007875905223874246, -0.010091390695168989, -0.003241541820263978, -0.004520818889869434, -0.0019688863114553598, -0.012871392876453424, -0.006552191743993471, 0.0030311412275096476, 0.008485744972174273, 0.012922889255460677], [-0.004215024715594542, -0.018467833275711307, -0.01473836926588284, 0.9168099218725555, 0.923666482171078, -0.005229475559924712, -0.00013747964068174103, 0.8384767068266282, 0.005360314795387166, 0.8816767567340869, -0.00025394386204506464, 0.001507006216582976, 0.9480215992467911, 0.8547746081276816, -0.003588965427942088, 0.8125934161315626, 0.008409457128045214, -0.012220152513789474, 0.7921025824845634, 0.7866324559305774, 0.0007729399989341515, -0.013719616492481457, 0.007831320331974484, 0.519334086566035, -0.006423793292247392, -0.007971790370914117, 0.8341887437740846, 0.7813997973155494, -0.005037736992638731, -0.015690795262670573, -0.015182343960609978, 0.0024032554125513043], [-0.012603713506405467, -0.004313086019445197, -0.01700372963450863, 0.00459974407150907, -0.0005093571119903658, -0.0014289417895959333, 0.0012203036179526635, 0.0023451487105147855, -0.019810487806565275, -0.008653578580700426, -0.0012616574456472724, 0.002301445010469866, 0.008679967690640524, -0.009725949574059582, -0.02124913880034492, -0.0038845823527591285, -0.0151136115391367, 0.0038380650958169415, 0.0015575113349499967, 0.012915624317140599, -0.009661155800656273, 0.004667058397097304, -0.012847358597083516, -0.009429496561554817, 0.011483759703503571, -0.008329492609466029, 0.004900019685299732, 0.00431514378482198, 0.00958081748763879, -0.004080131254605913, 0.016731794092547946, 0.014876424384784835], [0.005034716233058587, -0.000717762540216736, -0.0012305821543303866, 0.7970409550898411, 0.8163775080323057, 0.0028362109916308825, 0.0028433833940462055, 0.7477722716254277, -0.007130257875318405, 0.8019371481750474, -0.002890676492894145, 0.006744407798624426, 0.8174561875627475, 0.7536671052596546, 0.020115729866631984, 0.7258449033127393, 0.00788289910065766, -0.004750535440508466, 0.718809817052072, 0.7058909657101745, 0.01858772799130011, 0.0063220667596042696, 0.013513063020640367, 0.5057615614347746, 0.004070504837898733, 0.004381207064200687, 0.7414586472996173, 0.7149991092344145, -0.004214999107390058, -0.010831385415986772, 0.008605975300844265, -0.010348846317471521], [-0.001934476721949654, -0.000525940831486704, -0.005193479289725757, 0.781730543812253, 0.7872271132946229, -0.008132038316443524, -0.02288533089956008, 0.7309213289411347, 0.0031840779610069346, 0.7871576033896823, -0.0071592872524434675, -0.008616766141069045, 0.7976908409898293, 0.725844166054065, 0.011166813747179748, 0.7346946388973272, -0.004796030457989039, 0.008504297256491536, 0.713133475512442, 0.7030487745823406, -0.016281984635826897, 0.003069463194666384, 0.0029330503352324685, 0.478480577422956, -0.008249498941481944, -0.015574801307229836, 0.7237820277603664, 0.6951571766979724, 0.006370758833734941, -0.004159433276820412, -0.0019610626248978136, -0.009798191354306299], [-0.0022545547861146037, 0.01883726502615566, 0.002426598003117712, -0.008207058542082571, 0.020084463435772193, 0.007462296753908602, 0.007352917237163685, 0.0012763086771933416, -0.017788055065120944, -0.003558244586110757, 0.014352871444726016, -0.01641277894394216, -0.002108735542544395, 0.01837651575506731, -0.015742557454489096, -0.01733546334386802, -0.01267035216314555, 0.0030454906907346826, 0.009893157408360411, 0.001017921797075655, 0.003973701147998234, -0.01820604461806753, 0.009894320142000786, -0.012341741974760572, -0.020115588298506158, 0.009820574365727044, 0.0097324514928052, 0.009747325786046162, -0.00719857868603844, -0.002346101224535127, -0.002200636603350776, 0.011488004739364106], [-0.006632824855829895, 0.03409474058474793, -0.021675145345541373, 0.9386504745482434, 0.9379842502395024, 0.009377517641756088, -0.011536708671462349, 0.8737530468214033, -0.003221976966286312, 0.9000797296227632, 0.007299953316847635, 0.0017465993936066854, 0.9904569002915075, 0.8695075948122475, -0.013211986720285762, 0.8398499128063164, -0.008960457487203387, 0.003597648087413219, 0.7991744820929736, 0.8020609565283412, -0.0038218795403662784, -0.013678595030089336, -0.006656026155012812, 0.5349519962159958, 0.0006785752587756453, -0.01954071001333577, 0.8637464929275567, 0.7843439343209049, -0.011158444383146272, 0.0009516690606973494, 0.009068533784318435, -0.012475122238857952], [-0.0269394061853149, -0.014888493281574745, -0.027357410154309335, 0.6238064203338048, 0.6444733546927925, -0.004440063698057661, 0.006586566099376677, 0.6015825749637389, -0.0025424318604355847, 0.6226754576703034, 0.01477355644020758, 0.010327833535117638, 0.63773058983934, 0.5980407881453741, -0.005549894109518602, 0.5944573548768323, -0.014900757697825099, -0.0009031666583322995, 0.5695170550604569, 0.5751885134698833, -0.005983093133954803, 0.0014246472068158795, 0.002772997211588291, 0.42676966095572333, 0.003999410558970875, -0.0036010567006569427, 0.6055156540867926, 0.5833800206778643, -0.01599481082271849, -0.018885933915413614, -0.0031295903407397834, 0.01101552543608971], [-0.010871111680543118, 0.0022067072593016544, 0.001327347874312391, -0.004651697906820557, -0.007138112801086488, 0.008070607009112284, 0.015046372960078639, 0.005235320162308426, 0.0015679202027999773, 0.00955805242279537, -0.0005051032874467754, -0.0017072571755814732, 0.007058884400817619, 0.002740109540436761, 0.0077530544707426485, 0.005563808781282031, -9.465550575165457e-05, -0.0013085515945380074, 0.002006696917883772, -0.001475896877557094, 0.005372249604167573, -0.002706790333565685, -0.01011765632702129, 0.003712533666043592, 0.01550061789008086, 0.011695627782499367, 0.011071536784897954, -0.00020560845530528726, -0.014564617466760275, 0.010636640179306989, 0.005739866438246892, -0.00029972948068142483], [0.01440072461941003, -0.01808149500851655, 0.01234151134627298, 0.6964664167853274, 0.7076657026956628, 0.005990591580764236, 0.008067039181923053, 0.6710227854162683, -0.0216245405491219, 0.6924989599854078, 0.009915053330466274, 0.0018503532481230352, 0.7207318084041232, 0.6654787128169013, 0.004262326518446506, 0.6433678124173595, -0.009607707382116623, -0.0172449356036868, 0.6455099244745608, 0.6270672521710392, -0.0056196171111523915, -0.001801519661407831, 0.004206355216758956, 0.4616075419595334, 0.011466040484690966, -0.0017274364876800963, 0.6504256703558291, 0.6156406647730668, -0.013191863283408486, -0.01552695508712019, -4.678491481618528e-05, -0.0031284055790535433], [0.0068240663096121555, 0.011966962953009221, 0.023912929853720444, -0.022221802737309015, -0.00733361575355445, -0.011637581180145474, -0.005303258002365647, -0.01989441125191468, 0.008980042986259703, -0.015624280784016618, -0.001596061883689427, 0.0070771709166996735, 0.01063336315553797, 0.0027288596767747627, 0.0038469673198825004, -0.001971663323920057, -0.008392714613053978, -0.005582901979383128, 0.004760359531678588, -0.01204286696993689, 0.0015396848912331762, 0.004836647181049391, -0.0028894663506423314, 0.010509549744802395, -0.00739173933978327, 0.0034445542576447175, -0.011657995747212017, -0.011020694892067804, -0.014748176995381937, -0.00010614963953570276, 0.021252642110201204, 0.0065547739104394155], [0.004352102312381569, 0.010293384032789612, 0.0137618011351342, 0.7349992913803822, 0.7690141089289588, -0.007916588605727231, -0.009428811199671006, 0.7148619578563975, -0.0072715228535027935, 0.7482968773138248, -0.012090997959073894, 0.0070639155038870775, 0.78199270696789, 0.7013952065208455, -0.00501857995989364, 0.6989686517357936, 0.008842762435662857, -0.0177723617898164, 0.6626280270889836, 0.6531054320409553, 0.005686717377533392, -0.008852678890997771, -0.0074727940650119555, 0.4881064537061774, 0.002215402039236312, -0.013507226417697861, 0.6919684836307883, 0.6815976290175323, 0.0039508592867870005, -0.016400750025095577, 0.0028287396334806814, -0.005960548421837231], [-0.011586169196250076, -0.006882540175744839, 0.010479089728422398, -0.0036408405576259656, 0.010953650344170724, 0.006747006320114961, -0.008212190802364124, -0.016818997186220326, 0.0017033502521380545, -0.008031276641243859, 0.007991434792216204, 0.005224380074785243, 0.0005099073368105929, 0.008558000018668067, 0.010323482392014685, -0.008290611109749964, -0.014900180115763004, 0.011462248445914513, 0.009521105593831576, 0.017690863738346885, -0.007111249113209526, -0.010444975650851167, -0.014006713578612471, 0.013236997152423657, -0.012068528379168593, 0.014181984818033637, 0.028990355997629415, -0.007483591046549069, 0.0021434276208837917, 0.010202863026382401, 0.00503932150511235, -0.0015333020196182398], [0.00795836285601073, -0.008699035315935839, -0.003914643571729379, 0.0005809428552840302, 0.010390187554682772, 0.005475773926107171, 0.0013414548226830325, 0.005923659132905687, -0.0005533585892433142, -0.01580312717273965, -0.00899826268587029, 0.012934190877574778, -0.019740156744295974, -0.00013558021574008476, -0.006960680706318836, -0.003774521380820994, 0.0062487873685817385, 0.006787618040709528, -0.002707527675584328, -0.0029209848722988084, -0.02887362511249871, -0.0032303790244026303, 0.001815768857149935, 0.005143851474354159, -0.007848229939820497, 0.014355479752472129, -0.015439898069000212, 0.012359646408301426, -0.02124689689178775, -0.0040219022584428955, -0.00781092793849228, 0.006513717453581581], [-0.004639538856143594, 0.002762635722766422, 0.002063299635225759, 0.8090878586297373, 0.8080630397112446, -0.002856485047034135, 0.00016949454541793853, 0.7692127991814135, -0.010634768744759715, 0.790690253442803, 0.007227675363751691, -0.015109028762910258, 0.8464055854435355, 0.7545841168433337, 0.0022513257516988306, 0.7486083569417559, -0.005564581070654766, 0.0023228934724643024, 0.7030012529395189, 0.7081626957818403, 0.0018448115298361353, -0.0075306189655810155, 0.006911203602168291, 0.4985410810084362, 0.012902540124326477, -0.01874199484340224, 0.7598217155984236, 0.7288934449987624, -0.01018343676382232, -0.008228676540326465, 0.004320260724454357, 0.004018800097673167], [0.0011636750960572154, 0.008585552954764387, -0.014297316379816533, 0.002380445630434751, -0.02206705403739116, 0.002303307143140919, 0.0001220934396651583, -0.01851036866651111, 0.003757153793040628, 0.0038233200391462408, 0.01100676513450209, -0.0014106389520088546, -0.0024877886118927933, 0.0011275350792775047, 0.0011804070202932318, -0.005407292296492854, 0.0015476901727675553, -0.008126144501814016, 0.0094282721809023, -0.02413126006473138, -0.0023905850727764643, 0.006980518972860715, 0.010395594800862494, -0.006526805663107034, -0.009504157835054528, -0.012634766109732196, -0.010905162998538605, -0.0018970399671689657, 0.0019833507291109353, 0.007563240942289982, -0.011554998322680863, 0.007476649545153721], [0.009772585498849183, -0.01117655691879846, 0.009703414745330327, -0.0025616351190960117, -0.0005077922818136727, -0.003566784727996444, 0.0034127383606073155, -0.008439677233730828, 0.008627734577600221, -0.011661412937419884, -0.0014532027978210271, 0.0012035221517331719, 0.007593475257242702, -0.00023028488652724347, -0.032118668411004414, 0.007964942278715983, 0.006705133919107582, 0.015823735578512937, 0.0033541452967478435, 0.0019913004953362535, -0.0066180822371582435, 0.010436308347396095, 0.005227492843755043, 0.0007929763068028536, 0.023744247048546323, -0.0021306608979433273, 0.003840788397714044, -0.008277688368209331, -0.0037907588628659267, -0.017567850739720253, 0.007003372229711835, 0.006429507906107108], [-0.015051747914605654, 0.002154900084860618, 0.023430693805084557, 0.6337943508932443, 0.6318677168624125, 0.01027439292047967, -0.003460009972810931, 0.6156076912950817, 0.010749502610844452, 0.6349277666390086, 0.001771135766871679, 0.0019236561013067266, 0.6603512289050111, 0.6138119489650519, -0.0006888887712460486, 0.5874355966179609, 0.0041125692470061264, 0.01386158080809605, 0.5891423953066977, 0.5918096580493164, 0.005611148864615042, -0.007762103760448352, 0.007038571052187898, 0.43753196629340196, 0.00406414989965259, 0.0021213614527066907, 0.6000723987796637, 0.5627386880810216, 0.007378624449454668, 0.0034308681006781036, -0.001997470462227711, 0.009518527534159875], [-0.00034876881327972997, -0.0036613546594325224, 0.0020485710577155124, -0.013983317498271518, -0.0063299924368494685, -0.018652120138198367, -0.006942867662451806, -0.0010576497107407414, 0.006035670295023459, 0.004474904518308407, -0.002759807448312937, 0.00829672323526112, 0.004840233596491551, -0.013766126268234409, 0.017778529649024103, 0.009228627144435684, -0.0006470080948273133, 0.010680177612478683, -0.0018543217738154344, 0.008250836241564464, 0.020870902501158507, -0.0033224827449872514, -0.0017442275396349447, 0.0072335296930400046, 0.0002465623004880641, 0.00831488321060893, -0.009069553873538234, -0.013590702672325018, 0.0063789448854759245, 0.012646228815662065, 0.0021476028586638347, 0.0026571721597523183], [-0.003985809324856311, 0.012905016336868174, 0.006391360135114243, -0.004920268850796394, -0.009626177067726963, 0.0006334827474596859, 0.004700146306917789, -0.012194233484247138, -0.009284809361902261, -0.01832213361902993, 0.011140457411532967, 0.015588326979702681, 0.0014452958648331923, 0.008975192963314482, -0.006258390625187847, -0.004216983322427172, 0.004062721599244469, -0.008066295964527135, -0.0026675553700422094, 0.006410930469701428, 0.010533416717649957, 0.007231869130904066, -0.020724915216398104, 0.006274126048438066, -0.006908865995515849, -0.010131880817123544, -0.010738315155166175, -0.00584029783315374, 0.0013680346662110394, -0.017020098925133863, -0.027941726507612747, -0.0028970179108154907]], "biases": [[0.0, -0.004177087065846225, 0.0004935551197829089, 0.6853289332900612, 0.7034906518610707, -0.008818550686672234, 6.737354370542554e-05, 0.5745115929358151, 0.0, 0.6414409514045514, -0.0020514426759221807, -0.004045148802519929, 0.7669182643126244, 0.5703482209756588, -0.0030142648765722545, 0.5302090535169622, -0.008688987404577108, -0.005116052542985176, 0.4723537097956324, 0.4619966387206664, 0.00028437278095808533, 0.0, 0.0, 0.19556232610790777, -0.00044290023578420155, 0.0, 0.5493681574282397, 0.4596863305832725, 0.0, 0.0, -0.00017314248653175538, 0.00023268391687485563]]}, {"weights": [[-0.00953337391085586, 0.017867891559566543, -0.008744443236860721], [0.005459444065956806, -0.009448658411985346, -0.013215380222021563], [-0.012345768487780441, -0.032270863663378106, 0.007095442651576659], [-1.0951678529814168, -0.0010405045826700444, -0.005264586292457344], [-1.11097569946603, 0.0035097385476066433, -0.0010965515681132674], [0.010056197453467738, -0.0010709523491725056, 0.001941986538224543], [-0.001686540733010151, 0.005353146775501938, 0.009175076561600236], [-1.0084398517814992, -0.002125550746198655, 0.020048276978300302], [-0.012349978608179006, 0.005896030847708276, -0.01299775096286726], [-1.0663569156180064, 0.012039341182964068, 0.003929723384800815], [0.007883515101326675, -0.0058365113019145844, 0.019728836494665714], [0.015524047779608178, -0.005349329214162217, -0.01217428890384975], [-1.1613348220961903, -0.009522881940028007, 0.01207197745671263], [-1.008612590808175, -0.0026822666299243627, -0.0013948632655695296], [0.012012280238564111, -0.005920131106001303, -0.003840399490736449], [-0.9747606932712044, 0.0035637384194053563, -0.005121990190260251], [0.006865810735347412, 0.021970099221841673, -0.008126478117916057], [0.011598912410701889, -0.0033248810437453446, -0.001698807526962077], [-0.9274718895572532, -0.0013977250003305017, 0.014276936718284658], [-0.9146918552949082, -0.014143361074840759, 0.004607519884516147], [-0.007116407900668611, 0.007173061246806832, 0.00153744840633847], [-0.010377321989315796, -0.001786478031217616, -0.009622962870210389], [-0.0018413289312687099, -0.011734827674645789, -0.004644173658230617], [-0.6213315181260846, -0.00015673462556445463, 0.01303885778232862], [0.014715525368689619, -0.007266916944805295, -0.00880182665826534], [0.010048393983176647, -0.021300096709390565, 0.010022972338194379], [-0.9894546467789291, 0.020803592187352296, -0.0136918505498642], [-0.9181585655395348, -0.0026741052910609926, -0.0025650855670014184], [-0.008125208560215003, -0.014185533899200017, -0.001535893982558822], [0.0005195120988681568, 0.004427693201779676, -0.005497003433748767], [0.017311110394162606, 0.016845609388167086, 0.011740675627394354], [-0.005821667268249767, 0.025609519592906582, -0.0042926878044872805]], "biases": [[-3.1999999999999758, 0.0, 0.0]]}], "metrics": {"loss_history": [0.4479075510865925, 0.7293355821178751, 1.0802689961026386, 1.502907191961787, 2.0040918204816425, 2.614868060918863, 3.6368315380405014, 61.478546197236284, 8788.541169124703, 237074.47665024037], "reward_history": [], "timestamp": 1745686288.3723917}}